<?xml version="1.0"?>
<opencv_storage>
<cascade>
  <stageType>BOOST</stageType>
  <featureType>HAAR</featureType>
  <height>28</height>
  <width>28</width>
  <stageParams>
    <boostType>GAB</boostType>
    <minHitRate>9.9500000476837158e-01</minHitRate>
    <maxFalseAlarm>5.0000000000000000e-01</maxFalseAlarm>
    <weightTrimRate>9.4999998807907104e-01</weightTrimRate>
    <maxDepth>1</maxDepth>
    <maxWeakCount>100</maxWeakCount></stageParams>
  <featureParams>
    <maxCatCount>0</maxCatCount>
    <featSize>1</featSize>
    <mode>BASIC</mode></featureParams>
  <stageNum>20</stageNum>
  <stages>
    <!-- stage 0 -->
    <_>
      <maxWeakCount>4</maxWeakCount>
      <stageThreshold>-7.1338999271392822e-01</stageThreshold>
      <weakClassifiers>
        <_>
          <internalNodes>
            0 -1 12 9.6599355340003967e-02</internalNodes>
          <leafValues>
            -6.5765768289566040e-01 7.5000000000000000e-01</leafValues></_>
        <_>
          <internalNodes>
            0 -1 78 1.7896268400363624e-04</internalNodes>
          <leafValues>
            3.8060128688812256e-01 -1.</leafValues></_>
        <_>
          <internalNodes>
            0 -1 39 3.7464854540303349e-04</internalNodes>
          <leafValues>
            3.7741082906723022e-01 -8.3959764242172241e-01</leafValues></_>
        <_>
          <internalNodes>
            0 -1 32 -1.7987067985814065e-04</internalNodes>
          <leafValues>
            -8.7622541189193726e-01 4.0326404571533203e-01</leafValues></_></weakClassifiers></_>
    <!-- stage 1 -->
    <_>
      <maxWeakCount>3</maxWeakCount>
      <stageThreshold>-7.9569220542907715e-02</stageThreshold>
      <weakClassifiers>
        <_>
          <internalNodes>
            0 -1 13 4.2346138507127762e-02</internalNodes>
          <leafValues>
            -7.2340422868728638e-01 5.8095240592956543e-01</leafValues></_>
        <_>
          <internalNodes>
            0 -1 24 -4.3677566573023796e-03</internalNodes>
          <leafValues>
            -9.7486370801925659e-01 3.5391902923583984e-01</leafValues></_>
        <_>
          <internalNodes>
            0 -1 1 1.8804895225912333e-03</internalNodes>
          <leafValues>
            3.1434208154678345e-01 -8.7150555849075317e-01</leafValues></_></weakClassifiers></_>
    <!-- stage 2 -->
    <_>
      <maxWeakCount>6</maxWeakCount>
      <stageThreshold>-4.7818961739540100e-01</stageThreshold>
      <weakClassifiers>
        <_>
          <internalNodes>
            0 -1 58 -5.7504091411828995e-02</internalNodes>
          <leafValues>
            6.5853661298751831e-01 -5.2136754989624023e-01</leafValues></_>
        <_>
          <internalNodes>
            0 -1 3 3.6620814353227615e-04</internalNodes>
          <leafValues>
            4.2428758740425110e-01 -7.8324192762374878e-01</leafValues></_>
        <_>
          <internalNodes>
            0 -1 83 4.5149479410611093e-04</internalNodes>
          <leafValues>
            3.3176499605178833e-01 -8.5314857959747314e-01</leafValues></_>
        <_>
          <internalNodes>
            0 -1 10 3.6894460208714008e-05</internalNodes>
          <leafValues>
            -7.2326278686523438e-01 4.2080876231193542e-01</leafValues></_>
        <_>
          <internalNodes>
            0 -1 61 1.4973917044699192e-02</internalNodes>
          <leafValues>
            -3.2115456461906433e-01 1.</leafValues></_>
        <_>
          <internalNodes>
            0 -1 77 4.3595093302428722e-04</internalNodes>
          <leafValues>
            4.5023399591445923e-01 -8.1252884864807129e-01</leafValues></_></weakClassifiers></_>
    <!-- stage 3 -->
    <_>
      <maxWeakCount>5</maxWeakCount>
      <stageThreshold>-4.8775422573089600e-01</stageThreshold>
      <weakClassifiers>
        <_>
          <internalNodes>
            0 -1 50 -5.3775511682033539e-02</internalNodes>
          <leafValues>
            6.2500000000000000e-01 -4.7899159789085388e-01</leafValues></_>
        <_>
          <internalNodes>
            0 -1 57 -4.1804276406764984e-04</internalNodes>
          <leafValues>
            8.4443867206573486e-01 -3.1808590888977051e-01</leafValues></_>
        <_>
          <internalNodes>
            0 -1 31 1.5926669220789336e-05</internalNodes>
          <leafValues>
            -5.6132972240447998e-01 4.9091646075248718e-01</leafValues></_>
        <_>
          <internalNodes>
            0 -1 84 -3.3838575473055243e-04</internalNodes>
          <leafValues>
            -9.1071712970733643e-01 3.3982852101325989e-01</leafValues></_>
        <_>
          <internalNodes>
            0 -1 66 2.3183939629234374e-04</internalNodes>
          <leafValues>
            -3.7486764788627625e-01 8.7939941883087158e-01</leafValues></_></weakClassifiers></_>
    <!-- stage 4 -->
    <_>
      <maxWeakCount>6</maxWeakCount>
      <stageThreshold>-1.0115183591842651e+00</stageThreshold>
      <weakClassifiers>
        <_>
          <internalNodes>
            0 -1 36 1.3016467913985252e-02</internalNodes>
          <leafValues>
            -3.6054420471191406e-01 8.8461536169052124e-01</leafValues></_>
        <_>
          <internalNodes>
            0 -1 14 4.3753497302532196e-03</internalNodes>
          <leafValues>
            -5.8688670396804810e-01 4.7522324323654175e-01</leafValues></_>
        <_>
          <internalNodes>
            0 -1 73 -4.3648437713272870e-04</internalNodes>
          <leafValues>
            -7.7123862504959106e-01 3.3589276671409607e-01</leafValues></_>
        <_>
          <internalNodes>
            0 -1 71 2.2480636835098267e-04</internalNodes>
          <leafValues>
            -4.4720080494880676e-01 7.8947728872299194e-01</leafValues></_>
        <_>
          <internalNodes>
            0 -1 62 -2.5933501310646534e-03</internalNodes>
          <leafValues>
            9.1843867301940918e-01 -3.2947480678558350e-01</leafValues></_>
        <_>
          <internalNodes>
            0 -1 7 -1.3227749150246382e-03</internalNodes>
          <leafValues>
            -9.0333187580108643e-01 3.7669542431831360e-01</leafValues></_></weakClassifiers></_>
    <!-- stage 5 -->
    <_>
      <maxWeakCount>6</maxWeakCount>
      <stageThreshold>-8.6912608146667480e-01</stageThreshold>
      <weakClassifiers>
        <_>
          <internalNodes>
            0 -1 54 9.7841084003448486e-02</internalNodes>
          <leafValues>
            -5.6521737575531006e-01 6.9047617912292480e-01</leafValues></_>
        <_>
          <internalNodes>
            0 -1 27 -5.5684056133031845e-03</internalNodes>
          <leafValues>
            8.1087517738342285e-01 -4.0295186638832092e-01</leafValues></_>
        <_>
          <internalNodes>
            0 -1 11 5.8660246431827545e-03</internalNodes>
          <leafValues>
            -6.1513853073120117e-01 4.1237163543701172e-01</leafValues></_>
        <_>
          <internalNodes>
            0 -1 56 -3.7016305141150951e-03</internalNodes>
          <leafValues>
            7.9322946071624756e-01 -4.0239763259887695e-01</leafValues></_>
        <_>
          <internalNodes>
            0 -1 65 2.4319342337548733e-03</internalNodes>
          <leafValues>
            -2.9984089732170105e-01 8.8007348775863647e-01</leafValues></_>
        <_>
          <internalNodes>
            0 -1 8 -2.2711179917678237e-04</internalNodes>
          <leafValues>
            -7.8436279296875000e-01 3.8891008496284485e-01</leafValues></_></weakClassifiers></_>
    <!-- stage 6 -->
    <_>
      <maxWeakCount>6</maxWeakCount>
      <stageThreshold>-4.6887210011482239e-01</stageThreshold>
      <weakClassifiers>
        <_>
          <internalNodes>
            0 -1 55 5.4979190230369568e-02</internalNodes>
          <leafValues>
            -4.9593496322631836e-01 7.1052628755569458e-01</leafValues></_>
        <_>
          <internalNodes>
            0 -1 31 2.7030708733946085e-03</internalNodes>
          <leafValues>
            3.2378041744232178e-01 -8.0614221096038818e-01</leafValues></_>
        <_>
          <internalNodes>
            0 -1 19 -7.9048005864024162e-04</internalNodes>
          <leafValues>
            -8.5550606250762939e-01 2.9252490401268005e-01</leafValues></_>
        <_>
          <internalNodes>
            0 -1 26 2.5915287435054779e-02</internalNodes>
          <leafValues>
            -3.3316969871520996e-01 8.6287975311279297e-01</leafValues></_>
        <_>
          <internalNodes>
            0 -1 67 -2.2048367827665061e-04</internalNodes>
          <leafValues>
            -8.4769123792648315e-01 3.1946256756782532e-01</leafValues></_>
        <_>
          <internalNodes>
            0 -1 93 1.3072528417978901e-05</internalNodes>
          <leafValues>
            -4.7440433502197266e-01 5.7249563932418823e-01</leafValues></_></weakClassifiers></_>
    <!-- stage 7 -->
    <_>
      <maxWeakCount>4</maxWeakCount>
      <stageThreshold>-9.4333356618881226e-01</stageThreshold>
      <weakClassifiers>
        <_>
          <internalNodes>
            0 -1 2 1.6552100423723459e-03</internalNodes>
          <leafValues>
            2.7397260069847107e-01 -8.8679248094558716e-01</leafValues></_>
        <_>
          <internalNodes>
            0 -1 16 -1.2949102092534304e-03</internalNodes>
          <leafValues>
            -7.5745636224746704e-01 3.3317074179649353e-01</leafValues></_>
        <_>
          <internalNodes>
            0 -1 5 -1.8059098511002958e-04</internalNodes>
          <leafValues>
            -9.6664828062057495e-01 2.6302096247673035e-01</leafValues></_>
        <_>
          <internalNodes>
            0 -1 95 -3.1953796860761940e-04</internalNodes>
          <leafValues>
            -7.2287070751190186e-01 3.3617132902145386e-01</leafValues></_></weakClassifiers></_>
    <!-- stage 8 -->
    <_>
      <maxWeakCount>6</maxWeakCount>
      <stageThreshold>-3.9374181628227234e-01</stageThreshold>
      <weakClassifiers>
        <_>
          <internalNodes>
            0 -1 63 -1.6439657658338547e-02</internalNodes>
          <leafValues>
            9.0909093618392944e-01 -3.0322581529617310e-01</leafValues></_>
        <_>
          <internalNodes>
            0 -1 92 -3.1158199999481440e-04</internalNodes>
          <leafValues>
            -8.5325515270233154e-01 3.4831166267395020e-01</leafValues></_>
        <_>
          <internalNodes>
            0 -1 30 5.5733299814164639e-03</internalNodes>
          <leafValues>
            3.1542086601257324e-01 -7.9482215642929077e-01</leafValues></_>
        <_>
          <internalNodes>
            0 -1 40 1.1669767089188099e-02</internalNodes>
          <leafValues>
            -3.6135670542716980e-01 7.3665255308151245e-01</leafValues></_>
        <_>
          <internalNodes>
            0 -1 18 3.7099714973010123e-05</internalNodes>
          <leafValues>
            -5.9630852937698364e-01 4.5807912945747375e-01</leafValues></_>
        <_>
          <internalNodes>
            0 -1 74 -1.5036811819300056e-03</internalNodes>
          <leafValues>
            -8.4527438879013062e-01 3.5059586167335510e-01</leafValues></_></weakClassifiers></_>
    <!-- stage 9 -->
    <_>
      <maxWeakCount>4</maxWeakCount>
      <stageThreshold>-4.1435709595680237e-01</stageThreshold>
      <weakClassifiers>
        <_>
          <internalNodes>
            0 -1 88 5.9384643100202084e-04</internalNodes>
          <leafValues>
            3.1851851940155029e-01 -7.8125000000000000e-01</leafValues></_>
        <_>
          <internalNodes>
            0 -1 6 4.5512686483561993e-05</internalNodes>
          <leafValues>
            -5.5921036005020142e-01 4.6259930729866028e-01</leafValues></_>
        <_>
          <internalNodes>
            0 -1 82 5.2977968152845278e-05</internalNodes>
          <leafValues>
            -4.6341398358345032e-01 5.5784779787063599e-01</leafValues></_>
        <_>
          <internalNodes>
            0 -1 43 1.1763592920033261e-04</internalNodes>
          <leafValues>
            4.5522499084472656e-01 -7.3151302337646484e-01</leafValues></_></weakClassifiers></_>
    <!-- stage 10 -->
    <_>
      <maxWeakCount>5</maxWeakCount>
      <stageThreshold>-5.1428270339965820e-01</stageThreshold>
      <weakClassifiers>
        <_>
          <internalNodes>
            0 -1 47 2.6393396183266304e-05</internalNodes>
          <leafValues>
            -6.4814811944961548e-01 6.9230771064758301e-01</leafValues></_>
        <_>
          <internalNodes>
            0 -1 4 -1.4708980917930603e-02</internalNodes>
          <leafValues>
            5.8413374423980713e-01 -7.0782470703125000e-01</leafValues></_>
        <_>
          <internalNodes>
            0 -1 0 1.1151289982080925e-05</internalNodes>
          <leafValues>
            -6.7562663555145264e-01 6.3248687982559204e-01</leafValues></_>
        <_>
          <internalNodes>
            0 -1 79 -1.2931361561641097e-04</internalNodes>
          <leafValues>
            6.9498461484909058e-01 -5.6265568733215332e-01</leafValues></_>
        <_>
          <internalNodes>
            0 -1 52 3.0848991125822067e-02</internalNodes>
          <leafValues>
            -4.6962633728981018e-01 8.6843878030776978e-01</leafValues></_></weakClassifiers></_>
    <!-- stage 11 -->
    <_>
      <maxWeakCount>3</maxWeakCount>
      <stageThreshold>-6.4733695983886719e-01</stageThreshold>
      <weakClassifiers>
        <_>
          <internalNodes>
            0 -1 34 4.3364692828617990e-05</internalNodes>
          <leafValues>
            -6.7924529314041138e-01 6.9892472028732300e-01</leafValues></_>
        <_>
          <internalNodes>
            0 -1 22 1.8688436830416322e-04</internalNodes>
          <leafValues>
            -7.0900559425354004e-01 6.1127096414566040e-01</leafValues></_>
        <_>
          <internalNodes>
            0 -1 80 1.4811053915764205e-05</internalNodes>
          <leafValues>
            -5.7936269044876099e-01 7.7633607387542725e-01</leafValues></_></weakClassifiers></_>
    <!-- stage 12 -->
    <_>
      <maxWeakCount>4</maxWeakCount>
      <stageThreshold>-2.5123417377471924e-01</stageThreshold>
      <weakClassifiers>
        <_>
          <internalNodes>
            0 -1 38 8.6738891899585724e-02</internalNodes>
          <leafValues>
            -5.0877195596694946e-01 6.0000002384185791e-01</leafValues></_>
        <_>
          <internalNodes>
            0 -1 68 2.3998442338779569e-04</internalNodes>
          <leafValues>
            3.7877348065376282e-01 -8.0964863300323486e-01</leafValues></_>
        <_>
          <internalNodes>
            0 -1 15 2.9354063794016838e-02</internalNodes>
          <leafValues>
            -3.8513028621673584e-01 7.4543303251266479e-01</leafValues></_>
        <_>
          <internalNodes>
            0 -1 45 1.1080324184149504e-03</internalNodes>
          <leafValues>
            3.4354472160339355e-01 -9.6173137426376343e-01</leafValues></_></weakClassifiers></_>
    <!-- stage 13 -->
    <_>
      <maxWeakCount>5</maxWeakCount>
      <stageThreshold>-6.9018048048019409e-01</stageThreshold>
      <weakClassifiers>
        <_>
          <internalNodes>
            0 -1 35 2.1277906373143196e-02</internalNodes>
          <leafValues>
            -7.2839504480361938e-01 4.4067797064781189e-01</leafValues></_>
        <_>
          <internalNodes>
            0 -1 41 5.2380859851837158e-03</internalNodes>
          <leafValues>
            -5.6024473905563354e-01 4.1287308931350708e-01</leafValues></_>
        <_>
          <internalNodes>
            0 -1 81 1.3533208402805030e-04</internalNodes>
          <leafValues>
            3.1606760621070862e-01 -8.0199891328811646e-01</leafValues></_>
        <_>
          <internalNodes>
            0 -1 51 2.3952437564730644e-02</internalNodes>
          <leafValues>
            -3.1462156772613525e-01 9.2001587152481079e-01</leafValues></_>
        <_>
          <internalNodes>
            0 -1 46 -5.8547239750623703e-03</internalNodes>
          <leafValues>
            9.2690670490264893e-01 -3.7610456347465515e-01</leafValues></_></weakClassifiers></_>
    <!-- stage 14 -->
    <_>
      <maxWeakCount>3</maxWeakCount>
      <stageThreshold>-5.9960383176803589e-01</stageThreshold>
      <weakClassifiers>
        <_>
          <internalNodes>
            0 -1 90 -2.7679177946993150e-05</internalNodes>
          <leafValues>
            6.1290323734283447e-01 -6.0377359390258789e-01</leafValues></_>
        <_>
          <internalNodes>
            0 -1 49 2.4783552362350747e-05</internalNodes>
          <leafValues>
            -5.1504153013229370e-01 5.7939565181732178e-01</leafValues></_>
        <_>
          <internalNodes>
            0 -1 91 -1.6773974493844435e-05</internalNodes>
          <leafValues>
            5.4178804159164429e-01 -5.7522588968276978e-01</leafValues></_></weakClassifiers></_>
    <!-- stage 15 -->
    <_>
      <maxWeakCount>3</maxWeakCount>
      <stageThreshold>-4.2412701249122620e-01</stageThreshold>
      <weakClassifiers>
        <_>
          <internalNodes>
            0 -1 60 1.3195515748520847e-05</internalNodes>
          <leafValues>
            -5.3982299566268921e-01 6.2790697813034058e-01</leafValues></_>
        <_>
          <internalNodes>
            0 -1 20 1.3148109246685635e-05</internalNodes>
          <leafValues>
            -5.3662747144699097e-01 6.0980778932571411e-01</leafValues></_>
        <_>
          <internalNodes>
            0 -1 17 -1.3960521755507216e-05</internalNodes>
          <leafValues>
            6.6450208425521851e-01 -4.9411183595657349e-01</leafValues></_></weakClassifiers></_>
    <!-- stage 16 -->
    <_>
      <maxWeakCount>4</maxWeakCount>
      <stageThreshold>-7.1986496448516846e-01</stageThreshold>
      <weakClassifiers>
        <_>
          <internalNodes>
            0 -1 94 -1.0592931648716331e-03</internalNodes>
          <leafValues>
            -8.2608693838119507e-01 3.8461539149284363e-01</leafValues></_>
        <_>
          <internalNodes>
            0 -1 23 1.8942833412438631e-04</internalNodes>
          <leafValues>
            3.0937549471855164e-01 -8.9313155412673950e-01</leafValues></_>
        <_>
          <internalNodes>
            0 -1 89 1.5941126548568718e-05</internalNodes>
          <leafValues>
            -6.4163863658905029e-01 5.3746449947357178e-01</leafValues></_>
        <_>
          <internalNodes>
            0 -1 21 1.6049662008299492e-05</internalNodes>
          <leafValues>
            -5.9424215555191040e-01 4.3848514556884766e-01</leafValues></_></weakClassifiers></_>
    <!-- stage 17 -->
    <_>
      <maxWeakCount>6</maxWeakCount>
      <stageThreshold>-2.4393211305141449e-01</stageThreshold>
      <weakClassifiers>
        <_>
          <internalNodes>
            0 -1 48 -1.5284469351172447e-02</internalNodes>
          <leafValues>
            7.1428573131561279e-01 -3.2867133617401123e-01</leafValues></_>
        <_>
          <internalNodes>
            0 -1 87 2.1962203391012736e-05</internalNodes>
          <leafValues>
            -4.7048246860504150e-01 4.3820065259933472e-01</leafValues></_>
        <_>
          <internalNodes>
            0 -1 25 -2.7341593522578478e-04</internalNodes>
          <leafValues>
            -7.6627486944198608e-01 3.2907232642173767e-01</leafValues></_>
        <_>
          <internalNodes>
            0 -1 85 -1.6354184481315315e-04</internalNodes>
          <leafValues>
            -7.6059609651565552e-01 3.0278438329696655e-01</leafValues></_>
        <_>
          <internalNodes>
            0 -1 70 -6.1587081290781498e-04</internalNodes>
          <leafValues>
            7.2858422994613647e-01 -4.2281305789947510e-01</leafValues></_>
        <_>
          <internalNodes>
            0 -1 75 -2.4457343897665851e-05</internalNodes>
          <leafValues>
            5.5326551198959351e-01 -5.1680767536163330e-01</leafValues></_></weakClassifiers></_>
    <!-- stage 18 -->
    <_>
      <maxWeakCount>7</maxWeakCount>
      <stageThreshold>-3.2342982292175293e-01</stageThreshold>
      <weakClassifiers>
        <_>
          <internalNodes>
            0 -1 37 2.1157409995794296e-02</internalNodes>
          <leafValues>
            -3.3793103694915771e-01 7.7777779102325439e-01</leafValues></_>
        <_>
          <internalNodes>
            0 -1 42 -4.4311322271823883e-03</internalNodes>
          <leafValues>
            8.8904416561126709e-01 -2.0434805750846863e-01</leafValues></_>
        <_>
          <internalNodes>
            0 -1 69 3.0761337839066982e-03</internalNodes>
          <leafValues>
            -2.0084948837757111e-01 8.4390866756439209e-01</leafValues></_>
        <_>
          <internalNodes>
            0 -1 59 1.1990345083177090e-03</internalNodes>
          <leafValues>
            -2.0378716289997101e-01 8.9425164461135864e-01</leafValues></_>
        <_>
          <internalNodes>
            0 -1 28 6.2136310152709484e-03</internalNodes>
          <leafValues>
            4.0554016828536987e-01 -6.8896710872650146e-01</leafValues></_>
        <_>
          <internalNodes>
            0 -1 86 -1.4811053915764205e-05</internalNodes>
          <leafValues>
            6.1734306812286377e-01 -3.7880438566207886e-01</leafValues></_>
        <_>
          <internalNodes>
            0 -1 72 -2.9216766051831655e-05</internalNodes>
          <leafValues>
            6.4649921655654907e-01 -3.1931394338607788e-01</leafValues></_></weakClassifiers></_>
    <!-- stage 19 -->
    <_>
      <maxWeakCount>7</maxWeakCount>
      <stageThreshold>-8.5131943225860596e-01</stageThreshold>
      <weakClassifiers>
        <_>
          <internalNodes>
            0 -1 33 5.6130555458366871e-04</internalNodes>
          <leafValues>
            2.3943662643432617e-01 -7.1929824352264404e-01</leafValues></_>
        <_>
          <internalNodes>
            0 -1 9 -6.2861246988177299e-03</internalNodes>
          <leafValues>
            -8.7382841110229492e-01 1.8414869904518127e-01</leafValues></_>
        <_>
          <internalNodes>
            0 -1 64 -6.6830880939960480e-02</internalNodes>
          <leafValues>
            4.0789842605590820e-01 -4.8199030756950378e-01</leafValues></_>
        <_>
          <internalNodes>
            0 -1 76 -3.6377890501171350e-04</internalNodes>
          <leafValues>
            -7.3861610889434814e-01 3.4440559148788452e-01</leafValues></_>
        <_>
          <internalNodes>
            0 -1 53 -3.1898118322715163e-04</internalNodes>
          <leafValues>
            -8.6961281299591064e-01 1.9177179038524628e-01</leafValues></_>
        <_>
          <internalNodes>
            0 -1 29 1.3148109246685635e-05</internalNodes>
          <leafValues>
            -3.9809462428092957e-01 5.4327630996704102e-01</leafValues></_>
        <_>
          <internalNodes>
            0 -1 44 3.4733861684799194e-03</internalNodes>
          <leafValues>
            2.2087056934833527e-01 -9.0170073509216309e-01</leafValues></_></weakClassifiers></_></stages>
  <features>
    <_>
      <rects>
        <_>
          0 1 2 11 -1.</_>
        <_>
          1 1 1 11 2.</_></rects>
      <tilted>0</tilted></_>
    <_>
      <rects>
        <_>
          0 5 1 15 -1.</_>
        <_>
          0 10 1 5 3.</_></rects>
      <tilted>0</tilted></_>
    <_>
      <rects>
        <_>
          0 13 1 12 -1.</_>
        <_>
          0 17 1 4 3.</_></rects>
      <tilted>0</tilted></_>
    <_>
      <rects>
        <_>
          0 14 1 4 -1.</_>
        <_>
          0 16 1 2 2.</_></rects>
      <tilted>0</tilted></_>
    <_>
      <rects>
        <_>
          0 14 28 14 -1.</_>
        <_>
          0 21 28 7 2.</_></rects>
      <tilted>0</tilted></_>
    <_>
      <rects>
        <_>
          0 18 1 3 -1.</_>
        <_>
          0 19 1 1 3.</_></rects>
      <tilted>0</tilted></_>
    <_>
      <rects>
        <_>
          0 18 2 2 -1.</_>
        <_>
          1 18 1 2 2.</_></rects>
      <tilted>0</tilted></_>
    <_>
      <rects>
        <_>
          1 0 1 14 -1.</_>
        <_>
          1 7 1 7 2.</_></rects>
      <tilted>0</tilted></_>
    <_>
      <rects>
        <_>
          1 0 3 8 -1.</_>
        <_>
          2 0 1 8 3.</_></rects>
      <tilted>0</tilted></_>
    <_>
      <rects>
        <_>
          1 0 26 1 -1.</_>
        <_>
          14 0 13 1 2.</_></rects>
      <tilted>0</tilted></_>
    <_>
      <rects>
        <_>
          1 1 2 11 -1.</_>
        <_>
          2 1 1 11 2.</_></rects>
      <tilted>0</tilted></_>
    <_>
      <rects>
        <_>
          1 4 8 17 -1.</_>
        <_>
          5 4 4 17 2.</_></rects>
      <tilted>0</tilted></_>
    <_>
      <rects>
        <_>
          1 11 27 7 -1.</_>
        <_>
          10 11 9 7 3.</_></rects>
      <tilted>0</tilted></_>
    <_>
      <rects>
        <_>
          1 13 27 4 -1.</_>
        <_>
          10 13 9 4 3.</_></rects>
      <tilted>0</tilted></_>
    <_>
      <rects>
        <_>
          1 14 8 14 -1.</_>
        <_>
          5 14 4 14 2.</_></rects>
      <tilted>0</tilted></_>
    <_>
      <rects>
        <_>
          1 14 27 1 -1.</_>
        <_>
          10 14 9 1 3.</_></rects>
      <tilted>0</tilted></_>
    <_>
      <rects>
        <_>
          1 18 6 9 -1.</_>
        <_>
          3 18 2 9 3.</_></rects>
      <tilted>0</tilted></_>
    <_>
      <rects>
        <_>
          1 20 1 6 -1.</_>
        <_>
          1 23 1 3 2.</_></rects>
      <tilted>0</tilted></_>
    <_>
      <rects>
        <_>
          2 0 4 1 -1.</_>
        <_>
          4 0 2 1 2.</_></rects>
      <tilted>0</tilted></_>
    <_>
      <rects>
        <_>
          2 0 16 1 -1.</_>
        <_>
          10 0 8 1 2.</_></rects>
      <tilted>0</tilted></_>
    <_>
      <rects>
        <_>
          2 14 2 1 -1.</_>
        <_>
          3 14 1 1 2.</_></rects>
      <tilted>0</tilted></_>
    <_>
      <rects>
        <_>
          3 0 2 7 -1.</_>
        <_>
          4 0 1 7 2.</_></rects>
      <tilted>0</tilted></_>
    <_>
      <rects>
        <_>
          3 5 4 22 -1.</_>
        <_>
          5 5 2 22 2.</_></rects>
      <tilted>0</tilted></_>
    <_>
      <rects>
        <_>
          3 19 2 1 -1.</_>
        <_>
          4 19 1 1 2.</_></rects>
      <tilted>0</tilted></_>
    <_>
      <rects>
        <_>
          4 1 11 6 -1.</_>
        <_>
          4 4 11 3 2.</_></rects>
      <tilted>0</tilted></_>
    <_>
      <rects>
        <_>
          4 2 1 6 -1.</_>
        <_>
          4 4 1 2 3.</_></rects>
      <tilted>0</tilted></_>
    <_>
      <rects>
        <_>
          4 12 21 1 -1.</_>
        <_>
          11 12 7 1 3.</_></rects>
      <tilted>0</tilted></_>
    <_>
      <rects>
        <_>
          5 12 9 3 -1.</_>
        <_>
          8 12 3 3 3.</_></rects>
      <tilted>0</tilted></_>
    <_>
      <rects>
        <_>
          6 5 4 14 -1.</_>
        <_>
          8 5 2 14 2.</_></rects>
      <tilted>0</tilted></_>
    <_>
      <rects>
        <_>
          6 17 2 1 -1.</_>
        <_>
          7 17 1 1 2.</_></rects>
      <tilted>0</tilted></_>
    <_>
      <rects>
        <_>
          6 27 20 1 -1.</_>
        <_>
          16 27 10 1 2.</_></rects>
      <tilted>0</tilted></_>
    <_>
      <rects>
        <_>
          7 0 15 1 -1.</_>
        <_>
          12 0 5 1 3.</_></rects>
      <tilted>0</tilted></_>
    <_>
      <rects>
        <_>
          7 2 2 4 -1.</_>
        <_>
          7 2 1 2 2.</_>
        <_>
          8 4 1 2 2.</_></rects>
      <tilted>0</tilted></_>
    <_>
      <rects>
        <_>
          7 21 20 2 -1.</_>
        <_>
          7 22 20 1 2.</_></rects>
      <tilted>0</tilted></_>
    <_>
      <rects>
        <_>
          8 0 5 2 -1.</_>
        <_>
          8 1 5 1 2.</_></rects>
      <tilted>0</tilted></_>
    <_>
      <rects>
        <_>
          8 1 18 14 -1.</_>
        <_>
          8 8 18 7 2.</_></rects>
      <tilted>0</tilted></_>
    <_>
      <rects>
        <_>
          8 14 12 1 -1.</_>
        <_>
          12 14 4 1 3.</_></rects>
      <tilted>0</tilted></_>
    <_>
      <rects>
        <_>
          8 15 12 2 -1.</_>
        <_>
          12 15 4 2 3.</_></rects>
      <tilted>0</tilted></_>
    <_>
      <rects>
        <_>
          9 0 19 16 -1.</_>
        <_>
          9 8 19 8 2.</_></rects>
      <tilted>0</tilted></_>
    <_>
      <rects>
        <_>
          9 4 6 1 -1.</_>
        <_>
          11 4 2 1 3.</_></rects>
      <tilted>0</tilted></_>
    <_>
      <rects>
        <_>
          9 13 9 2 -1.</_>
        <_>
          12 13 3 2 3.</_></rects>
      <tilted>0</tilted></_>
    <_>
      <rects>
        <_>
          9 13 6 9 -1.</_>
        <_>
          12 13 3 9 2.</_></rects>
      <tilted>0</tilted></_>
    <_>
      <rects>
        <_>
          9 16 9 1 -1.</_>
        <_>
          12 16 3 1 3.</_></rects>
      <tilted>0</tilted></_>
    <_>
      <rects>
        <_>
          9 19 2 1 -1.</_>
        <_>
          10 19 1 1 2.</_></rects>
      <tilted>0</tilted></_>
    <_>
      <rects>
        <_>
          9 26 15 2 -1.</_>
        <_>
          14 26 5 2 3.</_></rects>
      <tilted>0</tilted></_>
    <_>
      <rects>
        <_>
          10 0 9 1 -1.</_>
        <_>
          13 0 3 1 3.</_></rects>
      <tilted>0</tilted></_>
    <_>
      <rects>
        <_>
          10 10 3 9 -1.</_>
        <_>
          10 13 3 3 3.</_></rects>
      <tilted>0</tilted></_>
    <_>
      <rects>
        <_>
          11 3 5 2 -1.</_>
        <_>
          11 4 5 1 2.</_></rects>
      <tilted>0</tilted></_>
    <_>
      <rects>
        <_>
          11 15 6 9 -1.</_>
        <_>
          11 18 6 3 3.</_></rects>
      <tilted>0</tilted></_>
    <_>
      <rects>
        <_>
          12 0 1 2 -1.</_>
        <_>
          12 1 1 1 2.</_></rects>
      <tilted>0</tilted></_>
    <_>
      <rects>
        <_>
          12 2 16 16 -1.</_>
        <_>
          12 2 8 8 2.</_>
        <_>
          20 10 8 8 2.</_></rects>
      <tilted>0</tilted></_>
    <_>
      <rects>
        <_>
          12 4 1 21 -1.</_>
        <_>
          12 11 1 7 3.</_></rects>
      <tilted>0</tilted></_>
    <_>
      <rects>
        <_>
          12 4 3 12 -1.</_>
        <_>
          12 10 3 6 2.</_></rects>
      <tilted>0</tilted></_>
    <_>
      <rects>
        <_>
          12 4 4 3 -1.</_>
        <_>
          12 5 4 1 3.</_></rects>
      <tilted>0</tilted></_>
    <_>
      <rects>
        <_>
          12 4 7 24 -1.</_>
        <_>
          12 12 7 8 3.</_></rects>
      <tilted>0</tilted></_>
    <_>
      <rects>
        <_>
          12 6 4 21 -1.</_>
        <_>
          12 13 4 7 3.</_></rects>
      <tilted>0</tilted></_>
    <_>
      <rects>
        <_>
          12 11 8 4 -1.</_>
        <_>
          12 11 4 2 2.</_>
        <_>
          16 13 4 2 2.</_></rects>
      <tilted>0</tilted></_>
    <_>
      <rects>
        <_>
          12 12 4 2 -1.</_>
        <_>
          12 12 2 1 2.</_>
        <_>
          14 13 2 1 2.</_></rects>
      <tilted>0</tilted></_>
    <_>
      <rects>
        <_>
          12 12 5 16 -1.</_>
        <_>
          12 20 5 8 2.</_></rects>
      <tilted>0</tilted></_>
    <_>
      <rects>
        <_>
          12 13 2 4 -1.</_>
        <_>
          12 13 1 2 2.</_>
        <_>
          13 15 1 2 2.</_></rects>
      <tilted>0</tilted></_>
    <_>
      <rects>
        <_>
          13 2 1 2 -1.</_>
        <_>
          13 3 1 1 2.</_></rects>
      <tilted>0</tilted></_>
    <_>
      <rects>
        <_>
          13 10 1 12 -1.</_>
        <_>
          13 14 1 4 3.</_></rects>
      <tilted>0</tilted></_>
    <_>
      <rects>
        <_>
          13 13 4 6 -1.</_>
        <_>
          13 13 2 3 2.</_>
        <_>
          15 16 2 3 2.</_></rects>
      <tilted>0</tilted></_>
    <_>
      <rects>
        <_>
          13 14 3 9 -1.</_>
        <_>
          13 17 3 3 3.</_></rects>
      <tilted>0</tilted></_>
    <_>
      <rects>
        <_>
          14 2 14 23 -1.</_>
        <_>
          21 2 7 23 2.</_></rects>
      <tilted>0</tilted></_>
    <_>
      <rects>
        <_>
          14 11 6 4 -1.</_>
        <_>
          14 11 3 2 2.</_>
        <_>
          17 13 3 2 2.</_></rects>
      <tilted>0</tilted></_>
    <_>
      <rects>
        <_>
          14 13 2 2 -1.</_>
        <_>
          14 13 1 1 2.</_>
        <_>
          15 14 1 1 2.</_></rects>
      <tilted>0</tilted></_>
    <_>
      <rects>
        <_>
          15 0 2 3 -1.</_>
        <_>
          15 1 2 1 3.</_></rects>
      <tilted>0</tilted></_>
    <_>
      <rects>
        <_>
          15 0 3 3 -1.</_>
        <_>
          15 1 3 1 3.</_></rects>
      <tilted>0</tilted></_>
    <_>
      <rects>
        <_>
          15 9 1 6 -1.</_>
        <_>
          15 11 1 2 3.</_></rects>
      <tilted>0</tilted></_>
    <_>
      <rects>
        <_>
          15 10 1 9 -1.</_>
        <_>
          15 13 1 3 3.</_></rects>
      <tilted>0</tilted></_>
    <_>
      <rects>
        <_>
          15 13 2 4 -1.</_>
        <_>
          15 13 1 2 2.</_>
        <_>
          16 15 1 2 2.</_></rects>
      <tilted>0</tilted></_>
    <_>
      <rects>
        <_>
          15 24 2 2 -1.</_>
        <_>
          15 24 1 1 2.</_>
        <_>
          16 25 1 1 2.</_></rects>
      <tilted>0</tilted></_>
    <_>
      <rects>
        <_>
          16 2 4 6 -1.</_>
        <_>
          16 2 2 3 2.</_>
        <_>
          18 5 2 3 2.</_></rects>
      <tilted>0</tilted></_>
    <_>
      <rects>
        <_>
          16 21 12 6 -1.</_>
        <_>
          16 23 12 2 3.</_></rects>
      <tilted>0</tilted></_>
    <_>
      <rects>
        <_>
          18 23 2 2 -1.</_>
        <_>
          18 24 2 1 2.</_></rects>
      <tilted>0</tilted></_>
    <_>
      <rects>
        <_>
          19 5 6 3 -1.</_>
        <_>
          19 6 6 1 3.</_></rects>
      <tilted>0</tilted></_>
    <_>
      <rects>
        <_>
          20 24 8 4 -1.</_>
        <_>
          20 24 4 2 2.</_>
        <_>
          24 26 4 2 2.</_></rects>
      <tilted>0</tilted></_>
    <_>
      <rects>
        <_>
          20 26 2 2 -1.</_>
        <_>
          20 27 2 1 2.</_></rects>
      <tilted>0</tilted></_>
    <_>
      <rects>
        <_>
          21 11 2 14 -1.</_>
        <_>
          22 11 1 14 2.</_></rects>
      <tilted>0</tilted></_>
    <_>
      <rects>
        <_>
          21 12 3 2 -1.</_>
        <_>
          21 13 3 1 2.</_></rects>
      <tilted>0</tilted></_>
    <_>
      <rects>
        <_>
          21 25 2 2 -1.</_>
        <_>
          21 26 2 1 2.</_></rects>
      <tilted>0</tilted></_>
    <_>
      <rects>
        <_>
          22 3 2 2 -1.</_>
        <_>
          22 4 2 1 2.</_></rects>
      <tilted>0</tilted></_>
    <_>
      <rects>
        <_>
          22 3 3 2 -1.</_>
        <_>
          22 4 3 1 2.</_></rects>
      <tilted>0</tilted></_>
    <_>
      <rects>
        <_>
          22 21 3 7 -1.</_>
        <_>
          23 21 1 7 3.</_></rects>
      <tilted>0</tilted></_>
    <_>
      <rects>
        <_>
          23 17 3 2 -1.</_>
        <_>
          24 17 1 2 3.</_></rects>
      <tilted>0</tilted></_>
    <_>
      <rects>
        <_>
          24 0 4 2 -1.</_>
        <_>
          24 0 2 1 2.</_>
        <_>
          26 1 2 1 2.</_></rects>
      <tilted>0</tilted></_>
    <_>
      <rects>
        <_>
          25 0 2 2 -1.</_>
        <_>
          25 1 2 1 2.</_></rects>
      <tilted>0</tilted></_>
    <_>
      <rects>
        <_>
          25 1 2 27 -1.</_>
        <_>
          26 1 1 27 2.</_></rects>
      <tilted>0</tilted></_>
    <_>
      <rects>
        <_>
          25 2 3 2 -1.</_>
        <_>
          25 3 3 1 2.</_></rects>
      <tilted>0</tilted></_>
    <_>
      <rects>
        <_>
          25 26 2 2 -1.</_>
        <_>
          25 27 2 1 2.</_></rects>
      <tilted>0</tilted></_>
    <_>
      <rects>
        <_>
          26 7 2 7 -1.</_>
        <_>
          27 7 1 7 2.</_></rects>
      <tilted>0</tilted></_>
    <_>
      <rects>
        <_>
          26 11 1 4 -1.</_>
        <_>
          26 13 1 2 2.</_></rects>
      <tilted>0</tilted></_>
    <_>
      <rects>
        <_>
          27 6 1 2 -1.</_>
        <_>
          27 7 1 1 2.</_></rects>
      <tilted>0</tilted></_>
    <_>
      <rects>
        <_>
          27 6 1 12 -1.</_>
        <_>
          27 10 1 4 3.</_></rects>
      <tilted>0</tilted></_>
    <_>
      <rects>
        <_>
          27 12 1 12 -1.</_>
        <_>
          27 16 1 4 3.</_></rects>
      <tilted>0</tilted></_></features></cascade>
</opencv_storage>
